Matrix: Kernel Weights
Shape: (16, 3, 3, 3)
Region: First 5x5 values

Values:
[[[[-0.1302 -0.0524  0.0934]
   [ 0.0266 -0.1424 -0.0917]
   [ 0.0531  0.1417  0.0062]]

  [[-0.099  -0.02   -0.0771]
   [-0.0876 -0.1677  0.0463]
   [-0.0178  0.1864 -0.1465]]

  [[-0.1712 -0.0644  0.0714]
   [ 0.0658  0.0144  0.0357]
   [-0.065   0.1717 -0.1585]]]


 [[[-0.1421 -0.0283 -0.0113]
   [ 0.021   0.157   0.082 ]
   [ 0.0747 -0.1077  0.1356]]

  [[-0.0846  0.1779 -0.154 ]
   [ 0.0469 -0.002   0.0611]
   [-0.1142  0.0416  0.0791]]

  [[ 0.0175 -0.0644 -0.0371]
   [ 0.0374 -0.0511  0.1496]
   [ 0.0322 -0.0396  0.1601]]]


 [[[ 0.1683 -0.0839  0.1712]
   [-0.0912 -0.0175  0.1688]
   [-0.1846  0.0942 -0.0405]]

  [[-0.1188  0.0234  0.1479]
   [ 0.0074  0.1175  0.0776]
   [ 0.0269  0.1203 -0.0054]]

  [[ 0.0455  0.1512  0.06  ]
   [ 0.0417  0.061  -0.116 ]
   [ 0.0231  0.0135  0.0993]]]


 [[[ 0.0274  0.1104 -0.0788]
   [-0.0553  0.0399  0.0526]
   [ 0.0758  0.1224  0.091 ]]

  [[ 0.1454 -0.1017  0.1805]
   [ 0.0577  0.0768 -0.1059]
   [ 0.0281  0.1083  0.0213]]

  [[ 0.1095 -0.0374 -0.1124]
   [-0.0225  0.0005 -0.1575]
   [ 0.181   0.1365  0.0765]]]


 [[[-0.1235  0.0401  0.1696]
   [ 0.1312 -0.0511 -0.1407]
   [-0.1734  0.1187 -0.1718]]

  [[-0.122  -0.1477  0.1648]
   [ 0.1338 -0.1726  0.1466]
   [ 0.0387  0.0218  0.0862]]

  [[-0.0427  0.1634  0.1038]
   [-0.044  -0.0238  0.1514]
   [ 0.0406 -0.1201  0.1654]]]


 [[[-0.1664  0.0328 -0.1159]
   [-0.1862 -0.1123  0.0323]
   [-0.0114 -0.1511  0.0121]]

  [[-0.1207 -0.0588  0.1741]
   [ 0.04    0.0659 -0.1449]
   [-0.1702 -0.1256  0.0794]]

  [[ 0.09    0.0355 -0.056 ]
   [ 0.0558 -0.1066 -0.0778]
   [-0.1179 -0.1846 -0.1488]]]


 [[[ 0.0257  0.0252  0.031 ]
   [-0.155   0.0525  0.1576]
   [-0.1295  0.0479  0.1257]]

  [[ 0.1244 -0.1858  0.0106]
   [-0.0646  0.0333  0.0133]
   [ 0.1586  0.0913  0.0739]]

  [[ 0.0974 -0.1368  0.0545]
   [ 0.0408  0.1454  0.0494]
   [-0.1268 -0.0685  0.0967]]]


 [[[-0.1509 -0.0835 -0.1383]
   [ 0.174  -0.0283 -0.1628]
   [ 0.0561  0.1093  0.1047]]

  [[-0.1547  0.1401 -0.0907]
   [-0.0992 -0.0359 -0.0559]
   [-0.0119 -0.1408 -0.1815]]

  [[ 0.1147  0.1465  0.0531]
   [ 0.1236 -0.1862 -0.1859]
   [ 0.1629  0.1496 -0.0552]]]


 [[[ 0.0399  0.067   0.1365]
   [ 0.1291 -0.0969 -0.0152]
   [-0.1664 -0.0135 -0.0486]]

  [[-0.1412  0.0375 -0.0298]
   [ 0.1161  0.0926  0.1214]
   [ 0.0842 -0.0835  0.0354]]

  [[-0.0912 -0.1651  0.0449]
   [-0.0975 -0.0271  0.0364]
   [ 0.1559  0.0046  0.0001]]]


 [[[ 0.0064  0.1802 -0.0693]
   [ 0.0582  0.0699  0.1757]
   [ 0.0752 -0.0809  0.0839]]

  [[ 0.0014 -0.1482 -0.0982]
   [-0.1722  0.0686  0.0172]
   [-0.1589  0.1609 -0.1579]]

  [[-0.0662 -0.0449 -0.0275]
   [ 0.0564  0.074   0.    ]
   [ 0.075  -0.0024  0.1697]]]


 [[[-0.162   0.0661 -0.0049]
   [-0.1788  0.1038  0.0062]
   [-0.1602  0.1251  0.08  ]]

  [[-0.0198 -0.0611 -0.1492]
   [-0.1254  0.0969  0.1354]
   [-0.1312 -0.0377  0.0604]]

  [[-0.0399  0.0519  0.0997]
   [-0.0392 -0.1629  0.0532]
   [-0.0542 -0.0088  0.0696]]]


 [[[-0.0422  0.0248 -0.1119]
   [-0.1705 -0.0033 -0.1154]
   [-0.0738 -0.0848  0.0661]]

  [[ 0.0287 -0.1667  0.1866]
   [ 0.1384  0.1516  0.1618]
   [ 0.068   0.15   -0.1854]]

  [[ 0.0867  0.0997  0.0798]
   [ 0.0816 -0.0989 -0.0404]
   [-0.1322 -0.0508  0.0994]]]


 [[[ 0.1544 -0.0633  0.1438]
   [-0.0657 -0.1555 -0.0447]
   [ 0.0185 -0.0651 -0.0432]]

  [[-0.0723  0.1139  0.0963]
   [ 0.1728  0.0945  0.0227]
   [-0.0881 -0.0797 -0.0817]]

  [[ 0.0801 -0.1762 -0.09  ]
   [-0.0817  0.0406  0.0005]
   [-0.1483 -0.0103 -0.0375]]]


 [[[ 0.0539 -0.1091  0.0496]
   [ 0.1383  0.0049 -0.0014]
   [-0.0204 -0.0579  0.1003]]

  [[-0.1006 -0.0117  0.0458]
   [-0.0624 -0.1043 -0.0503]
   [-0.0383 -0.1062 -0.1817]]

  [[ 0.0163  0.0693 -0.0124]
   [ 0.0474 -0.1499 -0.0413]
   [ 0.0852 -0.1215 -0.1701]]]


 [[[ 0.0391 -0.1187 -0.1269]
   [-0.0258  0.1499 -0.1748]
   [-0.053   0.1052 -0.1343]]

  [[ 0.0608 -0.0706 -0.0941]
   [-0.0754 -0.142  -0.1475]
   [-0.1069 -0.0161 -0.1762]]

  [[ 0.0774 -0.1392 -0.1272]
   [ 0.1052  0.1041 -0.1116]
   [-0.0593 -0.0679  0.0745]]]


 [[[-0.0151 -0.1864  0.1685]
   [-0.1071  0.1273 -0.1775]
   [-0.1169 -0.1603 -0.1484]]

  [[-0.1321 -0.0647 -0.0449]
   [-0.1827  0.154   0.0466]
   [-0.0579 -0.17   -0.1477]]

  [[ 0.007  -0.0187 -0.1348]
   [ 0.1691 -0.1616  0.0565]
   [-0.1716  0.1371 -0.1637]]]]