Matrix: Kernel Weights
Shape: (16, 3, 3, 3)
Region: First 5x5 values

Values:
[[[[-0.1631 -0.1439  0.0339]
   [ 0.0355  0.1655  0.144 ]
   [ 0.1036  0.0671  0.0555]]

  [[-0.0588  0.0046 -0.1819]
   [-0.0163 -0.161  -0.0941]
   [-0.1351  0.1818  0.1372]]

  [[ 0.0182  0.1842  0.1252]
   [-0.035   0.186   0.0639]
   [-0.0426 -0.003   0.0208]]]


 [[[ 0.0148 -0.0189 -0.104 ]
   [-0.0035  0.1058  0.0976]
   [ 0.0686 -0.1416 -0.1345]]

  [[-0.0499  0.0901 -0.1044]
   [-0.1178 -0.0616  0.0616]
   [-0.1603  0.0107  0.0098]]

  [[-0.1608  0.1739 -0.147 ]
   [-0.0088  0.0529 -0.0611]
   [ 0.0439  0.113   0.0671]]]


 [[[-0.0824 -0.076  -0.1322]
   [ 0.0618 -0.1821  0.0556]
   [ 0.1364  0.1288 -0.0164]]

  [[-0.0781 -0.0425 -0.1205]
   [-0.1108 -0.0532 -0.006 ]
   [-0.1538  0.1441  0.0176]]

  [[-0.178  -0.156  -0.1375]
   [ 0.1126  0.0568  0.0069]
   [ 0.0255 -0.1849 -0.04  ]]]


 [[[-0.1618 -0.1541 -0.0263]
   [ 0.0521  0.1355  0.0761]
   [ 0.1093 -0.0793  0.0116]]

  [[ 0.148   0.0028  0.0838]
   [ 0.155   0.0647 -0.1244]
   [ 0.0672  0.1468 -0.1514]]

  [[-0.0502 -0.0887 -0.1193]
   [ 0.1232  0.0445  0.0409]
   [ 0.1564 -0.1617 -0.1282]]]


 [[[ 0.0557  0.1558 -0.1722]
   [-0.009  -0.1117 -0.0244]
   [-0.027   0.15   -0.0752]]

  [[ 0.1713 -0.1843 -0.0734]
   [ 0.1752 -0.1461 -0.1714]
   [-0.1286 -0.1176 -0.003 ]]

  [[ 0.1045  0.1477  0.1478]
   [ 0.0084 -0.1167  0.1841]
   [ 0.1385 -0.1048  0.0592]]]


 [[[-0.0502  0.1699  0.1583]
   [ 0.1599  0.0679 -0.0934]
   [ 0.066   0.1174 -0.0597]]

  [[-0.1338 -0.1364 -0.1754]
   [-0.1615  0.1509 -0.0323]
   [-0.0985  0.1546 -0.12  ]]

  [[ 0.0556  0.1628  0.0548]
   [-0.0707 -0.1816  0.1234]
   [ 0.1055  0.0619  0.1081]]]


 [[[ 0.071  -0.0834  0.0536]
   [-0.1303 -0.0341  0.0023]
   [-0.004  -0.1312  0.0265]]

  [[-0.0956 -0.0635 -0.1225]
   [-0.0712 -0.0753  0.0132]
   [ 0.0207  0.1266  0.0048]]

  [[-0.0895  0.1215 -0.1424]
   [-0.0113  0.1677 -0.1346]
   [-0.0881  0.1664 -0.0308]]]


 [[[-0.0484  0.177   0.1127]
   [-0.1746 -0.0058  0.0686]
   [-0.1453 -0.0012 -0.1323]]

  [[-0.078  -0.0485 -0.0698]
   [ 0.1507  0.0453 -0.0424]
   [-0.1177  0.1566  0.0789]]

  [[ 0.0413  0.0214  0.1714]
   [ 0.169  -0.0068 -0.0452]
   [-0.1388 -0.0478 -0.0913]]]


 [[[ 0.0333 -0.074  -0.0539]
   [ 0.1783 -0.1367  0.1308]
   [-0.0154 -0.1702  0.1673]]

  [[ 0.0381  0.0002  0.1371]
   [-0.1855 -0.1559 -0.0914]
   [ 0.1724  0.0245 -0.1272]]

  [[-0.174  -0.1377  0.0601]
   [ 0.1447 -0.0295 -0.0364]
   [-0.0262 -0.0432  0.1495]]]


 [[[-0.1094 -0.1022 -0.1111]
   [ 0.1385 -0.0195 -0.0309]
   [-0.1801  0.1302 -0.1804]]

  [[-0.1833  0.0487  0.0164]
   [ 0.0352  0.1055 -0.0276]
   [-0.0732 -0.164   0.0069]]

  [[-0.0883 -0.1635  0.1294]
   [ 0.1424 -0.1689 -0.0579]
   [ 0.0766  0.1754 -0.0881]]]


 [[[ 0.0301  0.18   -0.0238]
   [ 0.0314 -0.0068  0.1228]
   [-0.1724  0.0084  0.0252]]

  [[-0.0137 -0.0788 -0.0959]
   [ 0.1797 -0.0243 -0.0929]
   [-0.0301  0.0256 -0.0057]]

  [[-0.0808 -0.1772 -0.0537]
   [ 0.127   0.0509 -0.0082]
   [ 0.0019  0.0184 -0.1584]]]


 [[[ 0.0203  0.1246  0.1617]
   [-0.1873  0.0411  0.0393]
   [ 0.1366 -0.1688  0.117 ]]

  [[-0.1191 -0.0262  0.0496]
   [ 0.0076  0.0579  0.1006]
   [ 0.1491 -0.1648 -0.1313]]

  [[ 0.0586  0.1812 -0.1584]
   [-0.0397  0.1252  0.0115]
   [ 0.0584 -0.0435 -0.1617]]]


 [[[ 0.0635  0.1026 -0.1153]
   [ 0.047   0.0012  0.1021]
   [ 0.1059 -0.0697 -0.0536]]

  [[ 0.0843 -0.1697 -0.0006]
   [ 0.1618 -0.0534 -0.1589]
   [ 0.0641  0.0792 -0.0954]]

  [[ 0.1331  0.1437  0.072 ]
   [-0.1231  0.0837 -0.0278]
   [ 0.1357  0.0751  0.1064]]]


 [[[-0.0612 -0.0564  0.0674]
   [-0.0506  0.0881  0.1646]
   [-0.0423  0.0419 -0.0397]]

  [[ 0.0405 -0.1155  0.0203]
   [ 0.1159 -0.1754 -0.052 ]
   [-0.1015 -0.0022  0.0517]]

  [[ 0.027   0.0829 -0.1344]
   [-0.1549 -0.1846  0.0666]
   [-0.1001  0.1537  0.0823]]]


 [[[ 0.1392 -0.0138 -0.1608]
   [-0.0876 -0.0943 -0.0088]
   [-0.0709  0.0227  0.0497]]

  [[-0.0666 -0.1193  0.0112]
   [-0.164   0.1672 -0.0317]
   [ 0.1307 -0.0987 -0.0113]]

  [[ 0.0117 -0.0331  0.1249]
   [ 0.041  -0.1092  0.0142]
   [ 0.0546 -0.174   0.1405]]]


 [[[-0.177   0.1737  0.1325]
   [-0.1502  0.1136 -0.0994]
   [-0.1511  0.0053 -0.1844]]

  [[-0.1217  0.1642  0.1412]
   [-0.155  -0.082  -0.0904]
   [-0.0142 -0.0554  0.0099]]

  [[-0.1701  0.1701  0.104 ]
   [-0.1567 -0.0675  0.0127]
   [-0.0437  0.049  -0.0367]]]]